0.091 0.059 0.040 0.077 -0.048 0.077 0.100 -0.067 0.059 -0.059 0.040 0.067 0.036 -0.056 0.067 0.045 0.045 -0.056 -0.091 -0.100 -0.067 -0.083 0.056 0.036 0.043 0.042 0.048 -0.042 -0.037 0.050 0.100 -0.100 0.053 0.050 -0.056 0.040 0.059 0.050 -0.038 -0.034 0.040 0.100 0.056 0.071 -0.071 0.062 0.062 -0.091 0.036 -0.056 0.053 0.036 -0.053 -0.042 0.048 0.048 -0.100 0.071 0.059 -0.056 0.059 0.050 -0.083 -0.059 
0.091 0.045 0.036 -0.048 0.053 0.056 -0.038 -0.056 -0.034 -0.083 0.034 0.048 0.077 -0.062 0.067 -0.037 0.050 -0.037 0.036 -0.034 0.091 -0.071 0.067 -0.038 0.050 0.056 0.036 0.077 0.048 -0.036 0.050 0.067 -0.100 -0.048 0.034 0.036 0.053 -0.034 -0.056 0.071 0.038 -0.083 -0.038 -0.067 -0.045 -0.056 0.045 -0.071 0.036 0.053 -0.034 -0.083 0.067 -0.045 0.077 -0.042 0.048 0.040 0.048 0.071 -0.042 -0.034 0.050 -0.048 
-0.037 -0.083 0.040 -0.050 0.077 0.036 -0.056 -0.083 -0.045 -0.077 -0.050 -0.077 -0.083 -0.045 0.048 -0.100 0.045 -0.059 0.050 0.048 0.050 -0.067 0.036 0.050 -0.083 0.038 0.048 0.062 -0.083 0.071 0.050 0.048 0.100 0.077 0.034 -0.091 -0.067 -0.034 -0.077 0.036 -0.045 0.042 0.038 0.059 -0.048 0.056 -0.056 0.038 0.036 0.040 0.040 0.077 0.034 -0.040 -0.100 0.048 -0.050 -0.067 0.045 0.050 0.083 -0.100 -0.053 0.083 
0.043 0.053 0.056 -0.067 0.083 0.053 0.045 0.100 0.071 0.050 0.043 0.062 -0.045 -0.100 -0.100 0.056 
0.045 0.040 -0.038 -0.038 
0.038 0.071 0.040 0.042 
-0.071 -0.100 -0.083 0.042 
0.077 0.053 -0.067 0.077 
-0.100 0.043 0.053 -0.100 
0.077 -0.050 -0.071 -0.034 
-0.071 -0.091 -0.071 0.059 
-0.067 -0.100 -0.053 0.059 
-0.050 0.040 0.083 0.062 
0.067 -0.056 0.056 0.050 
0.040 0.067 0.062 0.077 
-0.083 -0.040 -0.034 -0.100 
-0.040 0.045 0.040 0.091 
-0.067 0.077 -0.067 -0.100 
-0.050 0.042 0.040 -0.056 
0.048 0.050 -0.034 0.077 
